digraph Tree {
node [shape=box] ;
0 [label="maritalStat <= 0.5\nentropy = 0.999\nsamples = 180\nvalue = [86, 94]"] ;
1 [label="edState <= 0.5\nentropy = 0.684\nsamples = 99\nvalue = [18, 81]"] ;
0 -> 1 [labeldistance=2.5, labelangle=45, headlabel="True"] ;
2 [label="capitalGainState <= 0.5\nentropy = 0.571\nsamples = 89\nvalue = [12, 77]"] ;
1 -> 2 ;
3 [label="entropy = 0.0\nsamples = 9\nvalue = [0, 9]"] ;
2 -> 3 ;
4 [label="sex <= 0.5\nentropy = 0.61\nsamples = 80\nvalue = [12, 68]"] ;
2 -> 4 ;
5 [label="capitalGainState <= 1.5\nentropy = 0.881\nsamples = 10\nvalue = [3, 7]"] ;
4 -> 5 ;
6 [label="entropy = 0.0\nsamples = 1\nvalue = [0, 1]"] ;
5 -> 6 ;
7 [label="entropy = 0.918\nsamples = 9\nvalue = [3, 6]"] ;
5 -> 7 ;
8 [label="capitalGainState <= 1.5\nentropy = 0.554\nsamples = 70\nvalue = [9, 61]"] ;
4 -> 8 ;
9 [label="entropy = 1.0\nsamples = 2\nvalue = [1, 1]"] ;
8 -> 9 ;
10 [label="relationshipState <= 0.5\nentropy = 0.523\nsamples = 68\nvalue = [8, 60]"] ;
8 -> 10 ;
11 [label="entropy = 0.528\nsamples = 67\nvalue = [8, 59]"] ;
10 -> 11 ;
12 [label="entropy = 0.0\nsamples = 1\nvalue = [0, 1]"] ;
10 -> 12 ;
13 [label="geoLoc <= 0.5\nentropy = 0.971\nsamples = 10\nvalue = [6, 4]"] ;
1 -> 13 ;
14 [label="entropy = 0.0\nsamples = 1\nvalue = [1, 0]"] ;
13 -> 14 ;
15 [label="geoLoc <= 1.5\nentropy = 0.991\nsamples = 9\nvalue = [5, 4]"] ;
13 -> 15 ;
16 [label="relationshipState <= 0.5\nentropy = 1.0\nsamples = 8\nvalue = [4, 4]"] ;
15 -> 16 ;
17 [label="entropy = 1.0\nsamples = 6\nvalue = [3, 3]"] ;
16 -> 17 ;
18 [label="entropy = 1.0\nsamples = 2\nvalue = [1, 1]"] ;
16 -> 18 ;
19 [label="entropy = 0.0\nsamples = 1\nvalue = [1, 0]"] ;
15 -> 19 ;
20 [label="capitalGainState <= 1.0\nentropy = 0.635\nsamples = 81\nvalue = [68, 13]"] ;
0 -> 20 [labeldistance=2.5, labelangle=-45, headlabel="False"] ;
21 [label="entropy = 0.0\nsamples = 3\nvalue = [0, 3]"] ;
20 -> 21 ;
22 [label="ageState <= 0.5\nentropy = 0.552\nsamples = 78\nvalue = [68, 10]"] ;
20 -> 22 ;
23 [label="edState <= 0.5\nentropy = 0.663\nsamples = 58\nvalue = [48, 10]"] ;
22 -> 23 ;
24 [label="sex <= 0.5\nentropy = 0.677\nsamples = 56\nvalue = [46, 10]"] ;
23 -> 24 ;
25 [label="entropy = 0.592\nsamples = 28\nvalue = [24, 4]"] ;
24 -> 25 ;
26 [label="entropy = 0.75\nsamples = 28\nvalue = [22, 6]"] ;
24 -> 26 ;
27 [label="entropy = 0.0\nsamples = 2\nvalue = [2, 0]"] ;
23 -> 27 ;
28 [label="entropy = 0.0\nsamples = 20\nvalue = [20, 0]"] ;
22 -> 28 ;
}