digraph Tree {
node [shape=box] ;
0 [label="maritalStat <= 0.5\ngini = 0.5\nsamples = 180\nvalue = [90, 90]"] ;
1 [label="edState <= 0.5\ngini = 0.37\nsamples = 98\nvalue = [24, 74]"] ;
0 -> 1 [labeldistance=2.5, labelangle=45, headlabel="True"] ;
2 [label="geoLoc <= 1.5\ngini = 0.333\nsamples = 90\nvalue = [19, 71]"] ;
1 -> 2 ;
3 [label="capitalGainState <= 0.5\ngini = 0.323\nsamples = 89\nvalue = [18, 71]"] ;
2 -> 3 ;
4 [label="gini = 0.0\nsamples = 8\nvalue = [0, 8]"] ;
3 -> 4 ;
5 [label="sex <= 0.5\ngini = 0.346\nsamples = 81\nvalue = [18, 63]"] ;
3 -> 5 ;
6 [label="gini = 0.49\nsamples = 7\nvalue = [3, 4]"] ;
5 -> 6 ;
7 [label="capitalGainState <= 1.5\ngini = 0.323\nsamples = 74\nvalue = [15, 59]"] ;
5 -> 7 ;
8 [label="gini = 0.375\nsamples = 4\nvalue = [1, 3]"] ;
7 -> 8 ;
9 [label="gini = 0.32\nsamples = 70\nvalue = [14, 56]"] ;
7 -> 9 ;
10 [label="gini = 0.0\nsamples = 1\nvalue = [1, 0]"] ;
2 -> 10 ;
11 [label="geoLoc <= 0.5\ngini = 0.469\nsamples = 8\nvalue = [5, 3]"] ;
1 -> 11 ;
12 [label="gini = 0.0\nsamples = 1\nvalue = [1, 0]"] ;
11 -> 12 ;
13 [label="relationshipState <= 0.5\ngini = 0.49\nsamples = 7\nvalue = [4, 3]"] ;
11 -> 13 ;
14 [label="gini = 0.48\nsamples = 5\nvalue = [3, 2]"] ;
13 -> 14 ;
15 [label="gini = 0.5\nsamples = 2\nvalue = [1, 1]"] ;
13 -> 15 ;
16 [label="capitalGainState <= 0.5\ngini = 0.314\nsamples = 82\nvalue = [66, 16]"] ;
0 -> 16 [labeldistance=2.5, labelangle=-45, headlabel="False"] ;
17 [label="gini = 0.0\nsamples = 5\nvalue = [0, 5]"] ;
16 -> 17 ;
18 [label="ageState <= 0.5\ngini = 0.245\nsamples = 77\nvalue = [66, 11]"] ;
16 -> 18 ;
19 [label="edState <= 0.5\ngini = 0.316\nsamples = 56\nvalue = [45, 11]"] ;
18 -> 19 ;
20 [label="capitalGainState <= 1.5\ngini = 0.334\nsamples = 52\nvalue = [41, 11]"] ;
19 -> 20 ;
21 [label="gini = 0.0\nsamples = 1\nvalue = [1, 0]"] ;
20 -> 21 ;
22 [label="sex <= 0.5\ngini = 0.338\nsamples = 51\nvalue = [40, 11]"] ;
20 -> 22 ;
23 [label="gini = 0.32\nsamples = 30\nvalue = [24, 6]"] ;
22 -> 23 ;
24 [label="gini = 0.363\nsamples = 21\nvalue = [16, 5]"] ;
22 -> 24 ;
25 [label="gini = 0.0\nsamples = 4\nvalue = [4, 0]"] ;
19 -> 25 ;
26 [label="gini = 0.0\nsamples = 21\nvalue = [21, 0]"] ;
18 -> 26 ;
}